<?xml version="1.0" encoding="UTF-8"?>
<PMML version="4.2" xmlns="http://www.dmg.org/PMML-4_2">
    <Header copyright="Hongjie Li">
        <Application name="KNIME" version="3.5.3"/>
        <Timestamp>2019-03-26T20:47:17Z</Timestamp>
    </Header>
    <DataDictionary numberOfFields="5">
        <DataField name="sepal_length" optype="continuous" dataType="double">
            <Interval closure="closedClosed" leftMargin="4.3" rightMargin="7.9"/>
        </DataField>
        <DataField name="sepal_width" optype="continuous" dataType="double">
            <Interval closure="closedClosed" leftMargin="2.0" rightMargin="4.4"/>
        </DataField>
        <DataField name="petal_length" optype="continuous" dataType="double">
            <Interval closure="closedClosed" leftMargin="1.0" rightMargin="6.9"/>
        </DataField>
        <DataField name="petal_width" optype="continuous" dataType="double">
            <Interval closure="closedClosed" leftMargin="0.1" rightMargin="2.5"/>
        </DataField>
        <DataField name="class" optype="categorical" dataType="string">
            <Value value="Iris-setosa"/>
            <Value value="Iris-versicolor"/>
            <Value value="Iris-virginica"/>
        </DataField>
    </DataDictionary>
    <TreeModel modelName="DecisionTree" functionName="classification" splitCharacteristic="binarySplit"
               missingValueStrategy="lastPrediction" noTrueChildStrategy="returnNullPrediction">
        <MiningSchema>
            <MiningField name="sepal_length" invalidValueTreatment="asIs"/>
            <MiningField name="sepal_width" invalidValueTreatment="asIs"/>
            <MiningField name="petal_length" invalidValueTreatment="asIs"/>
            <MiningField name="petal_width" invalidValueTreatment="asIs"/>
            <MiningField name="class" invalidValueTreatment="asIs" usageType="target"/>
        </MiningSchema>
        <Node id="0" score="Iris-setosa" recordCount="45.0">
            <True/>
            <ScoreDistribution value="Iris-setosa" recordCount="15.0"/>
            <ScoreDistribution value="Iris-versicolor" recordCount="15.0"/>
            <ScoreDistribution value="Iris-virginica" recordCount="15.0"/>
            <Node id="1" score="Iris-setosa" recordCount="15.0">
                <SimplePredicate field="petal_width" operator="lessOrEqual" value="0.8"/>
                <ScoreDistribution value="Iris-setosa" recordCount="15.0"/>
                <ScoreDistribution value="Iris-versicolor" recordCount="0.0"/>
                <ScoreDistribution value="Iris-virginica" recordCount="0.0"/>
            </Node>
            <Node id="2" score="Iris-versicolor" recordCount="30.0">
                <SimplePredicate field="petal_width" operator="greaterThan" value="0.8"/>
                <ScoreDistribution value="Iris-setosa" recordCount="0.0"/>
                <ScoreDistribution value="Iris-versicolor" recordCount="15.0"/>
                <ScoreDistribution value="Iris-virginica" recordCount="15.0"/>
                <Node id="3" score="Iris-versicolor" recordCount="16.0">
                    <SimplePredicate field="petal_width" operator="lessOrEqual" value="1.65"/>
                    <ScoreDistribution value="Iris-setosa" recordCount="0.0"/>
                    <ScoreDistribution value="Iris-versicolor" recordCount="15.0"/>
                    <ScoreDistribution value="Iris-virginica" recordCount="1.0"/>
                </Node>
                <Node id="6" score="Iris-virginica" recordCount="14.0">
                    <SimplePredicate field="petal_width" operator="greaterThan" value="1.65"/>
                    <ScoreDistribution value="Iris-setosa" recordCount="0.0"/>
                    <ScoreDistribution value="Iris-versicolor" recordCount="0.0"/>
                    <ScoreDistribution value="Iris-virginica" recordCount="14.0"/>
                </Node>
            </Node>
        </Node>
    </TreeModel>
</PMML>